<?xml version="1.0"?>
<opencv_storage>
<cascade>
  <stageType>BOOST</stageType>
  <featureType>HAAR</featureType>
  <height>24</height>
  <width>24</width>
  <stageParams>
    <boostType>GAB</boostType>
    <minHitRate>9.9500000476837158e-01</minHitRate>
    <maxFalseAlarm>5.0000000000000000e-01</maxFalseAlarm>
    <weightTrimRate>9.4999998807907104e-01</weightTrimRate>
    <maxDepth>1</maxDepth>
    <maxWeakCount>100</maxWeakCount></stageParams>
  <featureParams>
    <maxCatCount>0</maxCatCount>
    <featSize>1</featSize>
    <mode>BASIC</mode></featureParams>
  <stageNum>5</stageNum>
  <stages>
    <!-- stage 0 -->
    <_>
      <maxWeakCount>2</maxWeakCount>
      <stageThreshold>-2.3735971748828888e-01</stageThreshold>
      <weakClassifiers>
        <_>
          <internalNodes>
            0 -1 0 -6.0460165143013000e-02</internalNodes>
          <leafValues>
            7.7777779102325439e-01 -9.8009949922561646e-01</leafValues></_>
        <_>
          <internalNodes>
            0 -1 9 -5.0961328670382500e-03</internalNodes>
          <leafValues>
            7.4273979663848877e-01 -9.6425098180770874e-01</leafValues></_></weakClassifiers></_>
    <!-- stage 1 -->
    <_>
      <maxWeakCount>2</maxWeakCount>
      <stageThreshold>-4.2936047911643982e-01</stageThreshold>
      <weakClassifiers>
        <_>
          <internalNodes>
            0 -1 5 4.3939989060163498e-02</internalNodes>
          <leafValues>
            -9.7014927864074707e-01 5.5555558204650879e-01</leafValues></_>
        <_>
          <internalNodes>
            0 -1 7 -2.2675158455967903e-02</internalNodes>
          <leafValues>
            5.7855939865112305e-01 -9.8491603136062622e-01</leafValues></_></weakClassifiers></_>
    <!-- stage 2 -->
    <_>
      <maxWeakCount>2</maxWeakCount>
      <stageThreshold>-3.0781561136245728e-01</stageThreshold>
      <weakClassifiers>
        <_>
          <internalNodes>
            0 -1 6 -1.5215116739273071e-01</internalNodes>
          <leafValues>
            7.5000000000000000e-01 -9.7029703855514526e-01</leafValues></_>
        <_>
          <internalNodes>
            0 -1 4 4.6974276192486286e-03</internalNodes>
          <leafValues>
            -9.5125639438629150e-01 6.6248142719268799e-01</leafValues></_></weakClassifiers></_>
    <!-- stage 3 -->
    <_>
      <maxWeakCount>3</maxWeakCount>
      <stageThreshold>-1.3791646957397461e+00</stageThreshold>
      <weakClassifiers>
        <_>
          <internalNodes>
            0 -1 10 -1.1424633860588074e-01</internalNodes>
          <leafValues>
            1. -9.5121949911117554e-01</leafValues></_>
        <_>
          <internalNodes>
            0 -1 2 -2.9023796319961548e-02</internalNodes>
          <leafValues>
            7.4033463001251221e-01 -9.3387126922607422e-01</leafValues></_>
        <_>
          <internalNodes>
            0 -1 8 -1.4581506140530109e-02</internalNodes>
          <leafValues>
            5.0592607259750366e-01 -9.8753857612609863e-01</leafValues></_></weakClassifiers></_>
    <!-- stage 4 -->
    <_>
      <maxWeakCount>2</maxWeakCount>
      <stageThreshold>-4.3545347452163696e-01</stageThreshold>
      <weakClassifiers>
        <_>
          <internalNodes>
            0 -1 1 -3.8928329944610596e-01</internalNodes>
          <leafValues>
            5.0000000000000000e-01 -9.6039605140686035e-01</leafValues></_>
        <_>
          <internalNodes>
            0 -1 3 -1.2616169452667236e-01</internalNodes>
          <leafValues>
            5.2494257688522339e-01 -9.2290014028549194e-01</leafValues></_></weakClassifiers></_></stages>
  <features>
    <_>
      <rects>
        <_>
          0 0 4 18 -1.</_>
        <_>
          2 0 2 18 2.</_></rects>
      <tilted>0</tilted></_>
    <_>
      <rects>
        <_>
          0 9 24 12 -1.</_>
        <_>
          12 9 12 12 2.</_></rects>
      <tilted>0</tilted></_>
    <_>
      <rects>
        <_>
          0 22 24 1 -1.</_>
        <_>
          8 22 8 1 3.</_></rects>
      <tilted>0</tilted></_>
    <_>
      <rects>
        <_>
          3 19 21 5 -1.</_>
        <_>
          10 19 7 5 3.</_></rects>
      <tilted>0</tilted></_>
    <_>
      <rects>
        <_>
          5 8 2 3 -1.</_>
        <_>
          6 8 1 3 2.</_></rects>
      <tilted>0</tilted></_>
    <_>
      <rects>
        <_>
          7 2 6 6 -1.</_>
        <_>
          7 5 6 3 2.</_></rects>
      <tilted>0</tilted></_>
    <_>
      <rects>
        <_>
          7 5 16 10 -1.</_>
        <_>
          15 5 8 10 2.</_></rects>
      <tilted>0</tilted></_>
    <_>
      <rects>
        <_>
          8 6 4 9 -1.</_>
        <_>
          8 9 4 3 3.</_></rects>
      <tilted>0</tilted></_>
    <_>
      <rects>
        <_>
          9 6 4 18 -1.</_>
        <_>
          9 6 2 9 2.</_>
        <_>
          11 15 2 9 2.</_></rects>
      <tilted>0</tilted></_>
    <_>
      <rects>
        <_>
          12 7 4 4 -1.</_>
        <_>
          12 7 2 2 2.</_>
        <_>
          14 9 2 2 2.</_></rects>
      <tilted>0</tilted></_>
    <_>
      <rects>
        <_>
          14 0 10 18 -1.</_>
        <_>
          14 0 5 9 2.</_>
        <_>
          19 9 5 9 2.</_></rects>
      <tilted>0</tilted></_></features></cascade>
</opencv_storage>
